{"learner":{"attributes":{"scikit_learn":"{\"_estimator_type\": \"classifier\"}"},"feature_names":["amount","hour_of_day","day_of_week","txns_last_24h","amount_last_24h","time_since_last_txn","avg_amount_24h","amount_to_avg_ratio","payment_method_encoded","location_encoded","device_encoded","merchant_encoded","timestamp_numeric"],"feature_types":["float","int","int","float","float","float","float","float","int","int","int","int","int"],"gradient_booster":{"model":{"cats":{"enc":[],"feature_segments":[],"sorted_idx":[]},"gbtree_model_param":{"num_parallel_tree":"1","num_trees":"100"},"iteration_indptr":[0,1,2,3,4,5,6,7,8,9,10,11,12,13,14,15,16,17,18,19,20,21,22,23,24,25,26,27,28,29,30,31,32,33,34,35,36,37,38,39,40,41,42,43,44,45,46,47,48,49,50,51,52,53,54,55,56,57,58,59,60,61,62,63,64,65,66,67,68,69,70,71,72,73,74,75,76,77,78,79,80,81,82,83,84,85,86,87,88,89,90,91,92,93,94,95,96,97,98,99,100],"tree_info":[0,0,0,0,0,0,0,0,0,0,0,0,0,0,0,0,0,0,0,0,0,0,0,0,0,0,0,0,0,0,0,0,0,0,0,0,0,0,0,0,0,0,0,0,0,0,0,0,0,0,0,0,0,0,0,0,0,0,0,0,0,0,0,0,0,0,0,0,0,0,0,0,0,0,0,0,0,0,0,0,0,0,0,0,0,0,0,0,0,0,0,0,0,0,0,0,0,0,0,0],"trees":[{"base_weights":[-3.813744E-8,-1.9989981E-1,1.9890329E0,-1.6190477E-1,1.9975023E-1],"categories":[],"categories_nodes":[],"categories_segments":[],"categories_sizes":[],"default_left":[0,0,0,0,0],"id":0,"left_children":[1,-1,3,-1,-1],"loss_changes":[1.5912243E4,0E0,6.4532715E1,0E0,0E0],"parents":[2147483647,0,0,2,2],"right_children":[2,-1,4,-1,-1],"split_conditions":[1.7089E6,-1.9989981E-1,3.375E1,-1.6190477E-1,1.9975023E-1],"split_indices":[12,0,0,0,0],"split_type":[0,0,0,0,0],"sum_hessian":[4E3,1.995E3,2.0049999E3,4.25E0,2.0007499E3],"tree_param":{"num_deleted":"0","num_feature":"13","num_nodes":"5","size_leaf_vector":"1"}},{"base_weights":[-4.121691E-5,-1.8178923E-1,1.8087081E0,-1.4961702E-1,1.8165037E-1],"categories":[],"categories_nodes":[],"categories_segments":[],"categories_sizes":[],"default_left":[0,0,0,0,0],"id":1,"left_children":[1,-1,3,-1,-1],"loss_changes":[1.3028349E4,0E0,5.3887695E1,0E0,0E0],"parents":[2147483647,0,0,2,2],"right_children":[2,-1,4,-1,-1],"split_conditions":[1.7089E6,-1.8178923E-1,3.375E1,-1.4961702E-1,1.8165037E-1],"split_indices":[12,0,0,0,0],"split_type":[0,0,0,0,0],"sum_hessian":[3.9603486E3,1.9752021E3,1.9851466E3,4.2222695E0,1.9809243E3],"tree_param":{"num_deleted":"0","num_feature":"13","num_nodes":"5","size_leaf_vector":"1"}},{"base_weights":[-7.74108E-5,-1.6818334E-1,1.6731615E0,-1.3958608E-1,1.6804789E-1],"categories":[],"categories_nodes":[],"categories_segments":[],"categories_sizes":[],"default_left":[0,0,0,0,0],"id":2,"left_children":[1,-1,3,-1,-1],"loss_changes":[1.0861774E4,0E0,4.5796875E1,0E0,0E0],"parents":[2147483647,0,0,2,2],"right_children":[2,-1,4,-1,-1],"split_conditions":[1.7089E6,-1.6818334E-1,3.375E1,-1.3958608E-1,1.6804789E-1],"split_indices":[12,0,0,0,0],"split_type":[0,0,0,0,0],"sum_hessian":[3.8579336E3,1.9240673E3,1.9338663E3,4.1485343E0,1.9297178E3],"tree_param":{"num_deleted":"0","num_feature":"13","num_nodes":"5","size_leaf_vector":"1"}},{"base_weights":[-1.1097507E-4,-1.5761723E-1,1.5678347E0,-1.3121948E-1,1.5748046E-1],"categories":[],"categories_nodes":[],"categories_segments":[],"categories_sizes":[],"default_left":[0,0,0,0,0],"id":3,"left_children":[1,-1,3,-1,-1],"loss_changes":[9.179332E3,0E0,3.9444336E1,0E0,0E0],"parents":[2147483647,0,0,2,2],"right_children":[2,-1,4,-1,-1],"split_conditions":[1.7089E6,-1.5761723E-1,3.375E1,-1.3121948E-1,1.5748046E-1],"split_indices":[12,0,0,0,0],"split_type":[0,0,0,0,0],"sum_hessian":[3.712557E3,1.8514844E3,1.8610726E3,4.0409102E0,1.8570317E3],"tree_param":{"num_deleted":"0","num_feature":"13","num_nodes":"5","size_leaf_vector":"1"}},{"base_weights":[-1.4321638E-4,-1.4920346E-1,1.4839047E0,-1.2411072E-1,1.4906196E-1],"categories":[],"categories_nodes":[],"categories_segments":[],"categories_sizes":[],"default_left":[0,0,0,0,0],"id":4,"left_children":[1,-1,3,-1,-1],"loss_changes":[7.8397383E3,0E0,3.4331787E1,0E0,0E0],"parents":[2147483647,0,0,2,2],"right_children":[2,-1,4,-1,-1],"split_conditions":[1.7089E6,-1.4920346E-1,3.375E1,-1.2411072E-1,1.4906196E-1],"split_indices":[12,0,0,0,0],"split_type":[0,0,0,0,0],"sum_hessian":[3.5389226E3,1.764795E3,1.7741277E3,3.9091272E0,1.7702185E3],"tree_param":{"num_deleted":"0","num_feature":"13","num_nodes":"5","size_leaf_vector":"1"}},{"base_weights":[-1.7508758E-4,-1.423711E-1,1.4156926E0,-1.17972076E-1,1.4222215E-1],"categories":[],"categories_nodes":[],"categories_segments":[],"categories_sizes":[],"default_left":[0,0,0,0,0],"id":5,"left_children":[1,-1,3,-1,-1],"loss_changes":[6.752081E3,0E0,3.0137695E1,0E0,0E0],"parents":[2147483647,0,0,2,2],"right_children":[2,-1,4,-1,-1],"split_conditions":[1.7089E6,-1.423711E-1,3.375E1,-1.17972076E-1,1.4222215E-1],"split_indices":[12,0,0,0,0],"split_type":[0,0,0,0,0],"sum_hessian":[3.3480134E3,1.669483E3,1.6785304E3,3.7609305E0,1.6747694E3],"tree_param":{"num_deleted":"0","num_feature":"13","num_nodes":"5","size_leaf_vector":"1"}},{"base_weights":[-2.071844E-4,-1.3673528E-1,1.3593688E0,-1.1259431E-1,1.3657652E-1],"categories":[],"categories_nodes":[],"categories_segments":[],"categories_sizes":[],"default_left":[0,0,0,0,0],"id":6,"left_children":[1,-1,3,-1,-1],"loss_changes":[5.855078E3,0E0,2.6644531E1,0E0,0E0],"parents":[2147483647,0,0,2,2],"right_children":[2,-1,4,-1,-1],"split_conditions":[1.7089E6,-1.3673528E-1,3.375E1,-1.1259431E-1,1.3657652E-1],"split_indices":[12,0,0,0,0],"split_type":[0,0,0,0,0],"sum_hessian":[3.1480283E3,1.5696417E3,1.5783865E3,3.6024365E0,1.574784E3],"tree_param":{"num_deleted":"0","num_feature":"13","num_nodes":"5","size_leaf_vector":"1"}},{"base_weights":[-2.3992536E-4,-1.3202661E-1,1.312252E0,-1.07822E-1,1.3185585E-1],"categories":[],"categories_nodes":[],"categories_segments":[],"categories_sizes":[],"default_left":[0,0,0,0,0],"id":7,"left_children":[1,-1,3,-1,-1],"loss_changes":[5.105835E3,0E0,2.3699463E1,0E0,0E0],"parents":[2147483647,0,0,2,2],"right_children":[2,-1,4,-1,-1],"split_conditions":[1.7089E6,-1.3202661E-1,3.375E1,-1.07822E-1,1.3185585E-1],"split_indices":[12,0,0,0,0],"split_type":[0,0,0,0,0],"sum_hessian":[2.9450505E3,1.468308E3,1.4767426E3,3.438425E0,1.4733041E3],"tree_param":{"num_deleted":"0","num_feature":"13","num_nodes":"5","size_leaf_vector":"1"}},{"base_weights":[-2.742755E-4,-1.2805067E-1,1.2724056E0,-1.0353752E-1,1.2786579E-1],"categories":[],"categories_nodes":[],"categories_segments":[],"categories_sizes":[],"default_left":[0,0,0,0,0],"id":8,"left_children":[1,-1,3,-1,-1],"loss_changes":[4.4733896E3,0E0,2.1189941E1,0E0,0E0],"parents":[2147483647,0,0,2,2],"right_children":[2,-1,4,-1,-1],"split_conditions":[1.7089E6,-1.2805067E-1,3.375E1,-1.0353752E-1,1.2786579E-1],"split_indices":[12,0,0,0,0],"split_type":[0,0,0,0,0],"sum_hessian":[2.7435461E3,1.3677118E3,1.3758342E3,3.2725923E0,1.3725616E3],"tree_param":{"num_deleted":"0","num_feature":"13","num_nodes":"5","size_leaf_vector":"1"}},{"base_weights":[-3.0980256E-4,-1.2466339E-1,1.2383947E0,-9.965044E-2,1.244623E-1],"categories":[],"categories_nodes":[],"categories_segments":[],"categories_sizes":[],"default_left":[0,0,0,0,0],"id":9,"left_children":[1,-1,3,-1,-1],"loss_changes":[3.9348118E3,0E0,1.9033203E1,0E0,0E0],"parents":[2147483647,0,0,2,2],"right_children":[2,-1,4,-1,-1],"split_conditions":[1.7089E6,-1.2466339E-1,3.375E1,-9.965044E-2,1.244623E-1],"split_indices":[12,0,0,0,0],"split_type":[0,0,0,0,0],"sum_hessian":[2.5467383E3,1.2694615E3,1.2772767E3,3.1077554E0,1.274169E3],"tree_param":{"num_deleted":"0","num_feature":"13","num_nodes":"5","size_leaf_vector":"1"}},{"base_weights":[-3.4745925E-4,-1.2175572E-1,1.2091312E0,-9.609042E-2,1.215362E0,8.444367E-2,1.2178947E-1],"categories":[],"categories_nodes":[],"categories_segments":[],"categories_sizes":[],"default_left":[0,0,0,0,0,0,0],"id":10,"left_children":[1,-1,3,-1,5,-1,-1],"loss_changes":[3.472737E3,0E0,1.716565E1,0E0,8.068848E-2,0E0,0E0],"parents":[2147483647,0,0,2,2,4,4],"right_children":[2,-1,4,-1,6,-1,-1],"split_conditions":[1.7089E6,-1.2175572E-1,3.375E1,-9.609042E-2,7.693E1,8.444367E-2,1.2178947E-1],"split_indices":[12,0,0,0,4,0,0],"split_type":[0,0,0,0,0,0,0],"sum_hessian":[2.3568928E3,1.1746887E3,1.1822041E3,2.9460218E0,1.1792582E3,1.0265523E1,1.1689926E3],"tree_param":{"num_deleted":"0","num_feature":"13","num_nodes":"7","size_leaf_vector":"1"}},{"base_weights":[-3.4940513E-4,-1.19243525E-1,1.1837922E0,-9.280214E-2,1.190049E0,8.091135E-1,1.19272664E-1,9.885378E-2,5.0868947E-2],"categories":[],"categories_nodes":[],"categories_segments":[],"categories_sizes":[],"default_left":[0,0,0,0,0,0,0,0,0],"id":11,"left_children":[1,-1,3,-1,5,7,-1,-1,-1],"loss_changes":[3.0738909E3,0E0,1.5538818E1,0E0,1.4660645E-1,7.470465E-2,0E0,0E0,0E0],"parents":[2147483647,0,0,2,2,4,4,5,5],"right_children":[2,-1,4,-1,6,8,-1,-1,-1],"split_conditions":[1.7089E6,-1.19243525E-1,3.375E1,-9.280214E-2,7.693E1,5.194E1,1.19272664E-1,9.885378E-2,5.0868947E-2],"split_indices":[12,0,0,0,4,0,0,0,0],"split_type":[0,0,0,0,0,0,0,0,0],"sum_hessian":[2.1755957E3,1.0841577E3,1.0914381E3,2.7889311E0,1.0886492E3,9.714792E0,1.0789343E3,4.648226E0,5.066566E0],"tree_param":{"num_deleted":"0","num_feature":"13","num_nodes":"9","size_leaf_vector":"1"}},{"base_weights":[-3.1950945E-4,-1.1706077E-1,1.161716E0,-1.2780617E-1,1.1670331E0,1.171001E-1,-9.998725E-2],"categories":[],"categories_nodes":[],"categories_segments":[],"categories_sizes":[],"default_left":[0,0,0,0,0,0,0],"id":12,"left_children":[1,-1,3,-1,5,-1,-1],"loss_changes":[2.727723E3,0E0,1.4547607E1,0E0,9.810181E0,0E0,0E0],"parents":[2147483647,0,0,2,2,4,4],"right_children":[2,-1,4,-1,6,-1,-1],"split_conditions":[1.7089E6,-1.1706077E-1,2E0,-1.2780617E-1,1.7E1,1.171001E-1,-9.998725E-2],"split_indices":[12,0,1,0,1,0,0],"split_type":[0,0,0,0,0,0,0],"sum_hessian":[2.0038018E3,9.983521E2,1.0054497E3,1.6658823E0,1.0037838E3,1.00240784E3,1.3759706E0],"tree_param":{"num_deleted":"0","num_feature":"13","num_nodes":"7","size_leaf_vector":"1"}},{"base_weights":[-4.3109842E-4,-1.15154885E-1,1.1424145E0,-1.23983875E-1,1.147834E0,1.1518937E-1,-9.705982E-2],"categories":[],"categories_nodes":[],"categories_segments":[],"categories_sizes":[],"default_left":[0,0,0,0,0,0,0],"id":13,"left_children":[1,-1,3,-1,5,-1,-1],"loss_changes":[2.4255251E3,0E0,1.3368164E1,0E0,9.061523E0,0E0,0E0],"parents":[2147483647,0,0,2,2,4,4],"right_children":[2,-1,4,-1,6,-1,-1],"split_conditions":[1.7089E6,-1.15154885E-1,2E0,-1.23983875E-1,1.7E1,1.1518937E-1,-9.705982E-2],"split_indices":[12,0,1,0,1,0,0],"split_type":[0,0,0,0,0,0,0],"sum_hessian":[1.8417349E3,9.1754285E2,9.2419196E2,1.580758E0,9.226112E2,9.213019E2,1.3093297E0],"tree_param":{"num_deleted":"0","num_feature":"13","num_nodes":"7","size_leaf_vector":"1"}},{"base_weights":[-5.4772367E-4,-1.1348351E-1,1.125428E0,-1.20273285E-1,1.1309717E0,1.135139E-1,-9.426623E-2],"categories":[],"categories_nodes":[],"categories_segments":[],"categories_sizes":[],"default_left":[0,0,0,0,0,0,0],"id":14,"left_children":[1,-1,3,-1,5,-1,-1],"loss_changes":[2.1608628E3,0E0,1.2318726E1,0E0,8.394165E0,0E0,0E0],"parents":[2147483647,0,0,2,2,4,4],"right_children":[2,-1,4,-1,6,-1,-1],"split_conditions":[1.7089E6,-1.1348351E-1,2E0,-1.20273285E-1,1.7E1,1.135139E-1,-9.426623E-2],"split_indices":[12,0,1,0,1,0,0],"split_type":[0,0,0,0,0,0,0],"sum_hessian":[1.6899015E3,8.4183966E2,8.4806177E2,1.5015405E0,8.4656024E2,8.45314E2,1.2462182E0],"tree_param":{"num_deleted":"0","num_feature":"13","num_nodes":"7","size_leaf_vector":"1"}},{"base_weights":[-6.705782E-4,-1.1201209E-1,1.1104089E0,-1.16634026E-1,1.1160986E0,1.1203896E-1,-9.158425E-2],"categories":[],"categories_nodes":[],"categories_segments":[],"categories_sizes":[],"default_left":[0,0,0,0,0,0,0],"id":15,"left_children":[1,-1,3,-1,5,-1,-1],"loss_changes":[1.928241E3,0E0,1.1380737E1,0E0,7.7974243E0,0E0,0E0],"parents":[2147483647,0,0,2,2,4,4],"right_children":[2,-1,4,-1,6,-1,-1],"split_conditions":[1.7089E6,-1.1201209E-1,2E0,-1.16634026E-1,1.7E1,1.1203896E-1,-9.158425E-2],"split_indices":[12,0,1,0,1,0,0],"split_type":[0,0,0,0,0,0,0],"sum_hessian":[1.5482844E3,7.712329E2,7.7705145E2,1.4285532E0,7.756229E2,7.7443616E2,1.1868011E0],"tree_param":{"num_deleted":"0","num_feature":"13","num_nodes":"7","size_leaf_vector":"1"}},{"base_weights":[-7.9994777E-4,-1.1071215E-1,1.0970705E0,-1.1304313E-1,1.1029292E0,1.1073603E-1,-8.899721E-2],"categories":[],"categories_nodes":[],"categories_segments":[],"categories_sizes":[],"default_left":[0,0,0,0,0,0,0],"id":16,"left_children":[1,-1,3,-1,5,-1,-1],"loss_changes":[1.7231378E3,0E0,1.0539368E1,0E0,7.2615356E0,0E0,0E0],"parents":[2147483647,0,0,2,2,4,4],"right_children":[2,-1,4,-1,6,-1,-1],"split_conditions":[1.7089E6,-1.1071215E-1,2E0,-1.1304313E-1,1.7E1,1.1073603E-1,-8.899721E-2],"split_indices":[12,0,1,0,1,0,0],"split_type":[0,0,0,0,0,0,0],"sum_hessian":[1.4166901E3,7.0562494E2,7.1106506E2,1.3617841E0,7.097033E2,7.085722E2,1.1311219E0],"tree_param":{"num_deleted":"0","num_feature":"13","num_nodes":"7","size_leaf_vector":"1"}},{"base_weights":[-9.3703764E-4,-1.09560035E-1,1.0851735E0,-1.0949127E-1,1.0912248E0,1.09581314E-1,-8.649289E-2],"categories":[],"categories_nodes":[],"categories_segments":[],"categories_sizes":[],"default_left":[0,0,0,0,0,0,0],"id":17,"left_children":[1,-1,3,-1,5,-1,-1],"loss_changes":[1.5417968E3,0E0,9.782227E0,0E0,6.7787476E0,0E0,0E0],"parents":[2147483647,0,0,2,2,4,4],"right_children":[2,-1,4,-1,6,-1,-1],"split_conditions":[1.7089E6,-1.09560035E-1,2E0,-1.0949127E-1,1.7E1,1.09581314E-1,-8.649289E-2],"split_indices":[12,0,1,0,1,0,0],"split_type":[0,0,0,0,0,0,0],"sum_hessian":[1.2947986E3,6.448559E2,6.499427E2,1.3009759E0,6.486417E2,6.475626E2,1.0791324E0],"tree_param":{"num_deleted":"0","num_feature":"13","num_nodes":"7","size_leaf_vector":"1"}},{"base_weights":[-1.0827032E-3,-1.085359E-1,1.0745174E0,-1.05979204E-1,1.0807855E0,1.08554915E-1,-8.406263E-2],"categories":[],"categories_nodes":[],"categories_segments":[],"categories_sizes":[],"default_left":[0,0,0,0,0,0,0],"id":18,"left_children":[1,-1,3,-1,5,-1,-1],"loss_changes":[1.3810741E3,0E0,9.098511E0,0E0,6.342407E0,0E0,0E0],"parents":[2147483647,0,0,2,2,4,4],"right_children":[2,-1,4,-1,6,-1,-1],"split_conditions":[1.7089E6,-1.085359E-1,2E0,-1.05979204E-1,1.7E1,1.08554915E-1,-8.406263E-2],"split_indices":[12,0,1,0,1,0,0],"split_type":[0,0,0,0,0,0,0],"sum_hessian":[1.1822032E3,5.8872266E2,5.934806E2,1.2457048E0,5.922349E2,5.9120416E2,1.0307164E0],"tree_param":{"num_deleted":"0","num_feature":"13","num_nodes":"7","size_leaf_vector":"1"}},{"base_weights":[-1.2367687E-3,-1.0762292E-1,1.064932E0,-1.025144E-1,1.0714424E0,5.2968E-1,1.076322E-1,2.1455815E-2,7.725369E-2],"categories":[],"categories_nodes":[],"categories_segments":[],"categories_sizes":[],"default_left":[0,0,0,0,0,0,0,0,0],"id":19,"left_children":[1,-1,3,-1,5,7,-1,-1,-1],"loss_changes":[1.2383196E3,0E0,8.479492E0,0E0,8.607788E-1,3.5468686E-1,0E0,0E0,0E0],"parents":[2147483647,0,0,2,2,4,4,5,5],"right_children":[2,-1,4,-1,6,8,-1,-1,-1],"split_conditions":[1.7089E6,-1.0762292E-1,2E0,-1.025144E-1,7.693E1,1.34568E6,1.076322E-1,2.1455815E-2,7.725369E-2],"split_indices":[12,0,1,0,4,5,0,0,0],"split_type":[0,0,0,0,0,0,0,0,0],"sum_hessian":[1.0784418E3,5.369941E2,5.414477E2,1.1954491E0,5.4025226E2,5.8005247E0,5.344517E2,3.344415E0,2.4561095E0],"tree_param":{"num_deleted":"0","num_feature":"13","num_nodes":"9","size_leaf_vector":"1"}},{"base_weights":[-1.2335057E-3,-1.0680687E-1,1.0560087E0,-9.9108145E-2,1.0627828E0,5.0604576E-1,1.06814936E-1,7.551836E-2,1.9606901E-2],"categories":[],"categories_nodes":[],"categories_segments":[],"categories_sizes":[],"default_left":[0,0,0,0,0,0,0,0,0],"id":20,"left_children":[1,-1,3,-1,5,7,-1,-1,-1],"loss_changes":[1.1113181E3,0E0,7.9156494E0,0E0,9.3463135E-1,3.6271083E-1,0E0,0E0,0E0],"parents":[2147483647,0,0,2,2,4,4,5,5],"right_children":[2,-1,4,-1,6,8,-1,-1,-1],"split_conditions":[1.7089E6,-1.0680687E-1,2E0,-9.9108145E-2,7.693E1,1.1E1,1.06814936E-1,7.551836E-2,1.9606901E-2],"split_indices":[12,0,1,0,4,1,0,0,0],"split_type":[0,0,0,0,0,0,0,0,0],"sum_hessian":[9.832957E2,4.8942236E2,4.9387335E2,1.1496427E0,4.9272372E2,5.614E0,4.871097E2,2.316167E0,3.297833E0],"tree_param":{"num_deleted":"0","num_feature":"13","num_nodes":"9","size_leaf_vector":"1"}},{"base_weights":[-1.2308101E-3,-1.0607548E-1,1.0478528E0,-9.577313E-2,1.0549166E0,1.06098674E-1,-8.285452E-2],"categories":[],"categories_nodes":[],"categories_segments":[],"categories_sizes":[],"default_left":[0,0,0,0,0,0,0],"id":21,"left_children":[1,-1,3,-1,5,-1,-1],"loss_changes":[9.980985E2,0E0,7.4024353E0,0E0,6.024994E0,0E0,0E0],"parents":[2147483647,0,0,2,2,4,4],"right_children":[2,-1,4,-1,6,-1,-1],"split_conditions":[1.7089E6,-1.0607548E-1,2E0,-9.577313E-2,1.7E1,1.06098674E-1,-8.285452E-2],"split_indices":[12,0,1,0,1,0,0],"split_type":[0,0,0,0,0,0,0],"sum_hessian":[8.959507E2,4.4575174E2,4.5019894E2,1.107718E0,4.4909125E2,4.480838E2,1.0074402E0],"tree_param":{"num_deleted":"0","num_feature":"13","num_nodes":"7","size_leaf_vector":"1"}},{"base_weights":[-1.4261537E-3,-1.05418205E-1,1.0406663E0,-9.252169E-2,1.0480525E0,4.5678475E-1,1.0542418E-1,1.3516714E-2,7.216559E-2],"categories":[],"categories_nodes":[],"categories_segments":[],"categories_sizes":[],"default_left":[0,0,0,0,0,0,0,0,0],"id":22,"left_children":[1,-1,3,-1,5,7,-1,-1,-1],"loss_changes":[8.969786E2,0E0,6.9359436E0,0E0,1.018158E0,4.1442978E-1,0E0,0E0,0E0],"parents":[2147483647,0,0,2,2,4,4,5,5],"right_children":[2,-1,4,-1,6,8,-1,-1,-1],"split_conditions":[1.7089E6,-1.05418205E-1,2E0,-9.252169E-2,7.693E1,1.34568E6,1.0542418E-1,1.3516714E-2,7.216559E-2],"split_indices":[12,0,1,0,4,5,0,0,0],"split_type":[0,0,0,0,0,0,0,0,0],"sum_hessian":[8.156136E2,4.0572516E2,4.0988843E2,1.0691359E0,4.088193E2,5.0099864E0,4.0380933E2,2.9447095E0,2.065277E0],"tree_param":{"num_deleted":"0","num_feature":"13","num_nodes":"9","size_leaf_vector":"1"}},{"base_weights":[-1.4284111E-3,-1.0482593E-1,1.0337684E0,-8.9364655E-2,1.0414996E0,2.2783525E-2,1.045967E-1],"categories":[],"categories_nodes":[],"categories_segments":[],"categories_sizes":[],"default_left":[0,0,0,0,0,0,0],"id":23,"left_children":[1,-1,3,-1,5,-1,-1],"loss_changes":[8.066222E2,0E0,6.507599E0,0E0,1.1182861E0,0E0,0E0],"parents":[2147483647,0,0,2,2,4,4],"right_children":[2,-1,4,-1,6,-1,-1],"split_conditions":[1.7089E6,-1.0482593E-1,2E0,-8.9364655E-2,4.617E1,2.2783525E-2,1.045967E-1],"split_indices":[12,0,1,0,6,0,0],"split_type":[0,0,0,0,0,0,0],"sum_hessian":[7.423389E2,3.6908914E2,3.7324982E2,1.0334044E0,3.722164E2,2.3164089E0,3.699E2],"tree_param":{"num_deleted":"0","num_feature":"13","num_nodes":"7","size_leaf_vector":"1"}},{"base_weights":[-1.5206434E-3,-1.0429066E-1,1.0272509E0,-8.6310714E-2,1.0353564E0,3.8592374E-1,1.0429796E-1,6.7952946E-2,6.441667E-3],"categories":[],"categories_nodes":[],"categories_segments":[],"categories_sizes":[],"default_left":[0,0,0,0,0,0,0,0,0],"id":24,"left_children":[1,-1,3,-1,5,7,-1,-1,-1],"loss_changes":[7.2564905E2,0E0,6.114258E0,0E0,1.279419E0,4.7813278E-1,0E0,0E0,0E0],"parents":[2147483647,0,0,2,2,4,4,5,5],"right_children":[2,-1,4,-1,6,8,-1,-1,-1],"split_conditions":[1.7089E6,-1.0429066E-1,2E0,-8.6310714E-2,7.693E1,1.1E1,1.0429796E-1,6.7952946E-2,6.441667E-3],"split_indices":[12,0,1,0,4,1,0,0,0],"split_type":[0,0,0,0,0,0,0,0,0],"sum_hessian":[6.753233E2,3.3559732E2,3.3972598E2,1.0000893E0,3.387259E2,4.528879E0,3.34197E2,1.7851106E0,2.7437685E0],"tree_param":{"num_deleted":"0","num_feature":"13","num_nodes":"9","size_leaf_vector":"1"}},{"base_weights":[-1.5313958E-3,-1.0380536E-1,1.0212384E0,-6.1538942E-2,1.0299536E0,3.42579E-1,1.0381168E-1,-3.2539747E-3,6.751968E-2],"categories":[],"categories_nodes":[],"categories_segments":[],"categories_sizes":[],"default_left":[0,0,0,0,0,0,0,0,0],"id":25,"left_children":[1,-1,3,-1,5,7,-1,-1,-1],"loss_changes":[6.531864E2,0E0,5.0572815E0,0E0,1.3774414E0,6.6049045E-1,0E0,0E0,0E0],"parents":[2147483647,0,0,2,2,4,4,5,5],"right_children":[2,-1,4,-1,6,8,-1,-1,-1],"split_conditions":[1.7089E6,-1.0380536E-1,3.375E1,-6.1538942E-2,7.693E1,1.34568E6,1.0381168E-1,-3.2539747E-3,6.751968E-2],"split_indices":[12,0,0,0,4,5,0,0,0],"split_type":[0,0,0,0,0,0,0,0,0],"sum_hessian":[6.1414166E2,3.0501273E2,3.0912894E2,1.2686785E0,3.0786026E2,4.1175265E0,3.0374274E2,2.359127E0,1.7583992E0],"tree_param":{"num_deleted":"0","num_feature":"13","num_nodes":"9","size_leaf_vector":"1"}},{"base_weights":[-1.5186033E-3,-1.0336393E-1,1.015703E0,5.2299254E-2,1.0336933E-1,-1.10975936E-1,8.126357E-2],"categories":[],"categories_nodes":[],"categories_segments":[],"categories_sizes":[],"default_left":[0,0,0,0,0,0,0],"id":26,"left_children":[1,-1,3,5,-1,-1,-1],"loss_changes":[5.882504E2,0E0,4.836731E0,6.402978E0,0E0,0E0,0E0],"parents":[2147483647,0,0,2,2,3,3],"right_children":[2,-1,4,6,-1,-1,-1],"split_conditions":[1.7089E6,-1.0336393E-1,7.693E1,1.708915E6,1.0336933E-1,-1.10975936E-1,8.126357E-2],"split_indices":[12,0,4,12,0,0,0],"split_type":[0,0,0,0,0,0,0],"sum_hessian":[5.582944E2,2.771097E2,2.8118466E2,5.2261486E0,2.7595853E2,1.885257E0,3.3408916E0],"tree_param":{"num_deleted":"0","num_feature":"13","num_nodes":"7","size_leaf_vector":"1"}},{"base_weights":[-1.5645875E-3,-1.0296086E-1,1.0110309E0,4.5409035E-2,1.02965415E-1,-1.0728234E-1,7.954056E-2],"categories":[],"categories_nodes":[],"categories_segments":[],"categories_sizes":[],"default_left":[0,0,0,0,0,0,0],"id":27,"left_children":[1,-1,3,5,-1,-1,-1],"loss_changes":[5.3007947E2,0E0,4.566437E0,5.8015323E0,0E0,0E0,0E0],"parents":[2147483647,0,0,2,2,3,3],"right_children":[2,-1,4,6,-1,-1,-1],"split_conditions":[1.7089E6,-1.0296086E-1,7.693E1,1.708915E6,1.02965415E-1,-1.0728234E-1,7.954056E-2],"split_indices":[12,0,4,12,0,0,0],"split_type":[0,0,0,0,0,0,0],"sum_hessian":[5.072057E2,2.5167462E2,2.5553107E2,4.9000564E0,2.5063101E2,1.7943188E0,3.1057377E0],"tree_param":{"num_deleted":"0","num_feature":"13","num_nodes":"7","size_leaf_vector":"1"}},{"base_weights":[-1.6123505E-3,-1.0259129E-1,1.006641E0,3.884258E-2,1.0259505E-1,-1.03665195E-1,7.7826805E-2],"categories":[],"categories_nodes":[],"categories_segments":[],"categories_sizes":[],"default_left":[0,0,0,0,0,0,0],"id":28,"left_children":[1,-1,3,5,-1,-1,-1],"loss_changes":[4.7782224E2,0E0,4.3174133E0,5.2604885E0,0E0,0E0,0E0],"parents":[2147483647,0,0,2,2,3,3],"right_children":[2,-1,4,6,-1,-1,-1],"split_conditions":[1.7089E6,-1.0259129E-1,7.693E1,1.708915E6,1.0259505E-1,-1.03665195E-1,7.7826805E-2],"split_indices":[12,0,4,12,0,0,0],"split_type":[0,0,0,0,0,0,0],"sum_hessian":[4.6066785E2,2.2850673E2,2.3216112E2,4.600385E0,2.2756073E2,1.7104969E0,2.889888E0],"tree_param":{"num_deleted":"0","num_feature":"13","num_nodes":"7","size_leaf_vector":"1"}},{"base_weights":[-1.6620792E-3,-1.0225085E-1,1.0024878E0,3.2617465E-2,1.0225387E-1,-1.0013912E-1,7.612189E-2],"categories":[],"categories_nodes":[],"categories_segments":[],"categories_sizes":[],"default_left":[0,0,0,0,0,0,0],"id":29,"left_children":[1,-1,3,5,-1,-1,-1],"loss_changes":[4.3084567E2,0E0,4.0871277E0,4.7737904E0,0E0,0E0,0E0],"parents":[2147483647,0,0,2,2,3,3],"right_children":[2,-1,4,6,-1,-1,-1],"split_conditions":[1.7089E6,-1.0225085E-1,7.693E1,1.708915E6,1.0225387E-1,-1.0013912E-1,7.612189E-2],"split_indices":[12,0,4,12,0,0,0],"split_type":[0,0,0,0,0,0,0],"sum_hessian":[4.183033E2,2.0741808E2,2.1088522E2,4.3246856E0,2.0656053E2,1.632909E0,2.6917763E0],"tree_param":{"num_deleted":"0","num_feature":"13","num_nodes":"7","size_leaf_vector":"1"}},{"base_weights":[-1.7125591E-3,-1.0193559E-1,9.985302E-1,2.6752926E-2,1.01937905E-1,-9.6716225E-2,7.4426405E-2],"categories":[],"categories_nodes":[],"categories_segments":[],"categories_sizes":[],"default_left":[0,0,0,0,0,0,0],"id":30,"left_children":[1,-1,3,5,-1,-1,-1],"loss_changes":[3.885907E2,0E0,3.873413E0,4.3360033E0,0E0,0E0,0E0],"parents":[2147483647,0,0,2,2,3,3],"right_children":[2,-1,4,6,-1,-1,-1],"split_conditions":[1.7089E6,-1.0193559E-1,7.693E1,1.708915E6,1.01937905E-1,-9.6716225E-2,7.4426405E-2],"split_indices":[12,0,4,12,0,0,0],"split_type":[0,0,0,0,0,0,0],"sum_hessian":[3.7976093E2,1.8823363E2,1.915273E2,4.070747E0,1.8745656E2,1.5607772E0,2.5099697E0],"tree_param":{"num_deleted":"0","num_feature":"13","num_nodes":"7","size_leaf_vector":"1"}},{"base_weights":[-1.7643521E-3,-1.01641946E-1,9.9473053E-1,2.1255206E-2,1.016436E-1,-9.340572E-2,7.274125E-2],"categories":[],"categories_nodes":[],"categories_segments":[],"categories_sizes":[],"default_left":[0,0,0,0,0,0,0],"id":31,"left_children":[1,-1,3,5,-1,-1,-1],"loss_changes":[3.5056192E2,0E0,3.674469E0,3.9421709E0,0E0,0E0,0E0],"parents":[2147483647,0,0,2,2,3,3],"right_children":[2,-1,4,6,-1,-1,-1],"split_conditions":[1.7089E6,-1.01641946E-1,7.693E1,1.708915E6,1.016436E-1,-9.340572E-2,7.274125E-2],"split_indices":[12,0,4,12,0,0,0],"split_type":[0,0,0,0,0,0,0],"sum_hessian":[3.4471393E2,1.7079073E2,1.739232E2,3.8365285E0,1.7008667E2,1.4934323E0,2.3430963E0],"tree_param":{"num_deleted":"0","num_feature":"13","num_nodes":"7","size_leaf_vector":"1"}},{"base_weights":[-1.8159361E-3,-1.0136663E-1,9.91054E-1,1.6129946E-2,1.01367645E-1,-9.021386E-2,7.1067974E-2],"categories":[],"categories_nodes":[],"categories_segments":[],"categories_sizes":[],"default_left":[0,0,0,0,0,0,0],"id":32,"left_children":[1,-1,3,5,-1,-1,-1],"loss_changes":[3.1632028E2,0E0,3.4887085E0,3.5878243E0,0E0,0E0,0E0],"parents":[2147483647,0,0,2,2,3,3],"right_children":[2,-1,4,6,-1,-1,-1],"split_conditions":[1.7089E6,-1.0136663E-1,7.693E1,1.708915E6,1.01367645E-1,-9.021386E-2,7.1067974E-2],"split_indices":[12,0,4,12,0,0,0],"split_type":[0,0,0,0,0,0,0],"sum_hessian":[3.1286072E2,1.5493893E2,1.5792178E2,3.6202114E0,1.5430157E2,1.4303087E0,2.1899028E0],"tree_param":{"num_deleted":"0","num_feature":"13","num_nodes":"7","size_leaf_vector":"1"}},{"base_weights":[-1.8720637E-3,-1.01106636E-1,9.87468E-1,1.1377141E-2,1.0110702E-1,-8.714416E-2,6.940845E-2],"categories":[],"categories_nodes":[],"categories_segments":[],"categories_sizes":[],"default_left":[0,0,0,0,0,0,0],"id":33,"left_children":[1,-1,3,5,-1,-1,-1],"loss_changes":[2.8547375E2,0E0,3.314743E0,3.2689142E0,0E0,0E0,0E0],"parents":[2147483647,0,0,2,2,3,3],"right_children":[2,-1,4,6,-1,-1,-1],"split_conditions":[1.7089E6,-1.01106636E-1,7.693E1,1.708915E6,1.0110702E-1,-8.714416E-2,6.940845E-2],"split_indices":[12,0,4,12,0,0,0],"split_type":[0,0,0,0,0,0,0],"sum_hessian":[2.839209E2,1.4053929E2,1.433816E2,3.4201598E0,1.3996144E2,1.3709347E0,2.049225E0],"tree_param":{"num_deleted":"0","num_feature":"13","num_nodes":"7","size_leaf_vector":"1"}},{"base_weights":[-1.9244655E-3,-1.0085918E-1,9.8394275E-1,6.989886E-3,1.00858964E-1,-8.419783E-2,6.776466E-2],"categories":[],"categories_nodes":[],"categories_segments":[],"categories_sizes":[],"default_left":[0,0,0,0,0,0,0],"id":34,"left_children":[1,-1,3,5,-1,-1,-1],"loss_changes":[2.5767706E2,0E0,3.1515274E0,2.981771E0,0E0,0E0,0E0],"parents":[2147483647,0,0,2,2,3,3],"right_children":[2,-1,4,6,-1,-1,-1],"split_conditions":[1.7089E6,-1.0085918E-1,7.693E1,1.708915E6,1.00858964E-1,-8.419783E-2,6.776466E-2],"split_indices":[12,0,4,12,0,0,0],"split_type":[0,0,0,0,0,0,0],"sum_hessian":[2.5763992E2,1.274638E2,1.3017612E2,3.2348976E0,1.26941216E2,1.3149194E0,1.9199781E0],"tree_param":{"num_deleted":"0","num_feature":"13","num_nodes":"7","size_leaf_vector":"1"}},{"base_weights":[-1.9840107E-3,-1.0062164E-1,9.804488E-1,2.9624458E-3,1.0062082E-1,-8.137422E-2,6.6138975E-2],"categories":[],"categories_nodes":[],"categories_segments":[],"categories_sizes":[],"default_left":[0,0,0,0,0,0,0],"id":35,"left_children":[1,-1,3,5,-1,-1,-1],"loss_changes":[2.3261714E2,0E0,2.9980087E0,2.7231069E0,0E0,0E0,0E0],"parents":[2147483647,0,0,2,2,3,3],"right_children":[2,-1,4,6,-1,-1,-1],"split_conditions":[1.7089E6,-1.0062164E-1,7.693E1,1.708915E6,1.0062082E-1,-8.137422E-2,6.6138975E-2],"split_indices":[12,0,4,12,0,0,0],"split_type":[0,0,0,0,0,0,0],"sum_hessian":[2.3377881E2,1.1559481E2,1.18184E2,3.063123E0,1.1512087E2,1.2619405E0,1.8011825E0],"tree_param":{"num_deleted":"0","num_feature":"13","num_nodes":"7","size_leaf_vector":"1"}},{"base_weights":[-2.041149E-3,-1.0039157E-1,9.769593E-1,-7.1807345E-4,1.0039013E-1,-7.867123E-2,6.4533584E-2],"categories":[],"categories_nodes":[],"categories_segments":[],"categories_sizes":[],"default_left":[0,0,0,0,0,0,0],"id":36,"left_children":[1,-1,3,5,-1,-1,-1],"loss_changes":[2.1001973E2,0E0,2.8533707E0,2.4899476E0,0E0,0E0,0E0],"parents":[2147483647,0,0,2,2,3,3],"right_children":[2,-1,4,6,-1,-1,-1],"split_conditions":[1.7089E6,-1.0039157E-1,7.693E1,1.708915E6,1.0039013E-1,-7.867123E-2,6.4533584E-2],"split_indices":[12,0,4,12,0,0,0],"split_type":[0,0,0,0,0,0,0],"sum_hessian":[2.1212332E2,1.0482435E2,1.0729898E2,2.903653E0,1.04395325E2,1.2117316E0,1.6919215E0],"tree_param":{"num_deleted":"0","num_feature":"13","num_nodes":"7","size_leaf_vector":"1"}},{"base_weights":[-2.0984856E-3,-1.0016661E-1,9.73448E-1,-4.0651886E-3,1.00164555E-1,-7.608567E-2,6.295075E-2],"categories":[],"categories_nodes":[],"categories_segments":[],"categories_sizes":[],"default_left":[0,0,0,0,0,0,0],"id":37,"left_children":[1,-1,3,5,-1,-1,-1],"loss_changes":[1.8963655E2,0E0,2.716896E0,2.2796295E0,0E0,0E0,0E0],"parents":[2147483647,0,0,2,2,3,3],"right_children":[2,-1,4,6,-1,-1,-1],"split_conditions":[1.7089E6,-1.0016661E-1,7.693E1,1.708915E6,1.00164555E-1,-7.608567E-2,6.295075E-2],"split_indices":[12,0,4,12,0,0,0],"split_type":[0,0,0,0,0,0,0],"sum_hessian":[1.9247423E2,9.505347E1,9.742077E1,2.755433E0,9.466534E1,1.1640713E0,1.5913618E0],"tree_param":{"num_deleted":"0","num_feature":"13","num_nodes":"7","size_leaf_vector":"1"}},{"base_weights":[-2.1606397E-3,-9.9944524E-2,9.698885E-1,-7.092862E-3,9.994183E-2,-7.361364E-2,6.139275E-2],"categories":[],"categories_nodes":[],"categories_segments":[],"categories_sizes":[],"default_left":[0,0,0,0,0,0,0],"id":38,"left_children":[1,-1,3,5,-1,-1,-1],"loss_changes":[1.7124512E2,0E0,2.5879364E0,2.08977E0,0E0,0E0,0E0],"parents":[2147483647,0,0,2,2,3,3],"right_children":[2,-1,4,6,-1,-1,-1],"split_conditions":[1.7089E6,-9.9944524E-2,7.693E1,1.708915E6,9.994183E-2,-7.361364E-2,6.139275E-2],"split_indices":[12,0,4,12,0,0,0],"split_type":[0,0,0,0,0,0,0],"sum_hessian":[1.7464894E2,8.619157E1,8.8457375E1,2.6175206E0,8.583986E1,1.1187748E0,1.4987458E0],"tree_param":{"num_deleted":"0","num_feature":"13","num_nodes":"7","size_leaf_vector":"1"}},{"base_weights":[-2.2239906E-3,-9.972312E-2,9.6625656E-1,-9.819053E-3,9.9719785E-2,-7.125076E-2,5.9861537E-2],"categories":[],"categories_nodes":[],"categories_segments":[],"categories_sizes":[],"default_left":[0,0,0,0,0,0,0],"id":39,"left_children":[1,-1,3,5,-1,-1,-1],"loss_changes":[1.5464789E2,0E0,2.4659271E0,1.9182285E0,0E0,0E0,0E0],"parents":[2147483647,0,0,2,2,3,3],"right_children":[2,-1,4,6,-1,-1,-1],"split_conditions":[1.7089E6,-9.972312E-2,7.693E1,1.708915E6,9.9719785E-2,-7.125076E-2,5.9861537E-2],"split_indices":[12,0,4,12,0,0,0],"split_type":[0,0,0,0,0,0,0],"sum_hessian":[1.5848227E2,7.8155945E1,8.0326324E1,2.489056E0,7.7837265E1,1.0756841E0,1.4133719E0],"tree_param":{"num_deleted":"0","num_feature":"13","num_nodes":"7","size_leaf_vector":"1"}},{"base_weights":[-2.2804807E-3,-9.9500276E-2,9.625282E-1,-1.2260185E-2,9.949631E-2,-6.899236E-2,5.8359046E-2],"categories":[],"categories_nodes":[],"categories_segments":[],"categories_sizes":[],"default_left":[0,0,0,0,0,0,0],"id":40,"left_children":[1,-1,3,5,-1,-1,-1],"loss_changes":[1.3966805E2,0E0,2.3503647E0,1.7630982E0,0E0,0E0,0E0],"parents":[2147483647,0,0,2,2,3,3],"right_children":[2,-1,4,6,-1,-1,-1],"split_conditions":[1.7089E6,-9.9500276E-2,7.693E1,1.708915E6,9.949631E-2,-6.899236E-2,5.8359046E-2],"split_indices":[12,0,4,12,0,0,0],"split_type":[0,0,0,0,0,0,0],"sum_hessian":[1.4382373E2,7.087101E1,7.295272E1,2.369272E0,7.058345E1,1.034664E0,1.334608E0],"tree_param":{"num_deleted":"0","num_feature":"13","num_nodes":"7","size_leaf_vector":"1"}},{"base_weights":[-2.349787E-3,-9.9273905E-2,9.586772E-1,-1.443359E-2,9.9269204E-2,1.3699568E-2,-1.4255128E-2],"categories":[],"categories_nodes":[],"categories_segments":[],"categories_sizes":[],"default_left":[0,0,0,0,0,0,0],"id":41,"left_children":[1,-1,3,5,-1,-1,-1],"loss_changes":[1.2614294E2,0E0,2.2407951E0,8.272638E-2,0E0,0E0,0E0],"parents":[2147483647,0,0,2,2,3,3],"right_children":[2,-1,4,6,-1,-1,-1],"split_conditions":[1.7089E6,-9.9273905E-2,7.693E1,5.194E1,9.9269204E-2,1.3699568E-2,-1.4255128E-2],"split_indices":[12,0,4,0,0,0,0],"split_type":[0,0,0,0,0,0,0],"sum_hessian":[1.3053229E2,6.426785E1,6.626443E1,2.2574725E0,6.400696E1,1.0028517E0,1.2546209E0],"tree_param":{"num_deleted":"0","num_feature":"13","num_nodes":"7","size_leaf_vector":"1"}},{"base_weights":[-2.3446674E-3,-9.904193E-2,9.531659E-1,-1.3133322E-2,9.903647E-2,1.0438685E-2,-1.1146805E-2],"categories":[],"categories_nodes":[],"categories_segments":[],"categories_sizes":[],"default_left":[0,0,0,0,0,0,0],"id":42,"left_children":[1,-1,3,5,-1,-1,-1],"loss_changes":[1.1385092E2,0E0,2.2166786E0,4.9303513E-2,0E0,0E0,0E0],"parents":[2147483647,0,0,2,2,3,3],"right_children":[2,-1,4,6,-1,-1,-1],"split_conditions":[1.7089E6,-9.904193E-2,7.693E1,5.85E2,9.903647E-2,1.0438685E-2,-1.1146805E-2],"split_indices":[12,0,4,9,0,0,0],"split_type":[0,0,0,0,0,0,0],"sum_hessian":[1.18590096E2,5.8283623E1,6.0306477E1,2.2594914E0,5.8046986E1,1.0012947E0,1.2581967E0],"tree_param":{"num_deleted":"0","num_feature":"13","num_nodes":"7","size_leaf_vector":"1"}},{"base_weights":[-2.3295768E-3,-9.880225E-2,9.473345E-1,-1.2028229E-2,9.8796055E-2,1.3360373E-2,-1.3632037E-2],"categories":[],"categories_nodes":[],"categories_segments":[],"categories_sizes":[],"default_left":[0,0,0,0,0,0,0],"id":43,"left_children":[1,-1,3,5,-1,-1,-1],"loss_changes":[1.0275124E2,0E0,2.190857E0,7.720865E-2,0E0,0E0,0E0],"parents":[2147483647,0,0,2,2,3,3],"right_children":[2,-1,4,6,-1,-1,-1],"split_conditions":[1.7089E6,-9.880225E-2,7.693E1,5.194E1,9.8796055E-2,1.3360373E-2,-1.3632037E-2],"split_indices":[12,0,4,0,0,0,0],"split_type":[0,0,0,0,0,0,0],"sum_hessian":[1.0776801E2,5.2861076E1,5.4906937E1,2.2592697E0,5.2647667E1,1.0058305E0,1.2534393E0],"tree_param":{"num_deleted":"0","num_feature":"13","num_nodes":"7","size_leaf_vector":"1"}},{"base_weights":[-2.3230286E-3,-9.8552786E-2,9.410827E-1,-1.0884057E-2,9.854573E-2,1.271299E-2,-1.2842002E-2],"categories":[],"categories_nodes":[],"categories_segments":[],"categories_sizes":[],"default_left":[0,0,0,0,0,0,0],"id":44,"left_children":[1,-1,3,5,-1,-1,-1],"loss_changes":[9.272237E1,0E0,2.165779E0,6.9227666E-2,0E0,0E0,0E0],"parents":[2147483647,0,0,2,2,3,3],"right_children":[2,-1,4,6,-1,-1,-1],"split_conditions":[1.7089E6,-9.8552786E-2,7.693E1,5.194E1,9.854573E-2,1.271299E-2,-1.2842002E-2],"split_indices":[12,0,4,0,0,0,0],"split_type":[0,0,0,0,0,0,0],"sum_hessian":[9.796372E1,4.794815E1,5.0015568E1,2.261184E0,4.7754387E1,1.0024519E0,1.258732E0],"tree_param":{"num_deleted":"0","num_feature":"13","num_nodes":"7","size_leaf_vector":"1"}},{"base_weights":[-2.3055924E-3,-9.8291405E-2,9.3440044E-1,-9.813146E-3,9.828349E-2,-6.599348E-2,5.691154E-2],"categories":[],"categories_nodes":[],"categories_segments":[],"categories_sizes":[],"default_left":[0,0,0,0,0,0,0],"id":45,"left_children":[1,-1,3,5,-1,-1,-1],"loss_changes":[8.366337E1,0E0,2.1401138E0,1.6037502E0,0E0,0E0,0E0],"parents":[2147483647,0,0,2,2,3,3],"right_children":[2,-1,4,6,-1,-1,-1],"split_conditions":[1.7089E6,-9.8291405E-2,7.693E1,1.708915E6,9.828349E-2,-6.599348E-2,5.691154E-2],"split_indices":[12,0,4,12,0,0,0],"split_type":[0,0,0,0,0,0,0],"sum_hessian":[8.9082924E1,4.349746E1,4.558547E1,2.2631671E0,4.33223E1,1.0001266E0,1.2630405E0],"tree_param":{"num_deleted":"0","num_feature":"13","num_nodes":"7","size_leaf_vector":"1"}},{"base_weights":[-2.397675E-3,-9.801596E-2,9.293936E-1,-1.1788729E-2,9.800708E-2,7.99893E-3,-9.191984E-3],"categories":[],"categories_nodes":[],"categories_segments":[],"categories_sizes":[],"default_left":[0,0,0,0,0,0,0],"id":46,"left_children":[1,-1,3,5,-1,-1,-1],"loss_changes":[7.555568E1,0E0,2.0369873E0,3.0575793E-2,0E0,0E0,0E0],"parents":[2147483647,0,0,2,2,3,3],"right_children":[2,-1,4,6,-1,-1,-1],"split_conditions":[1.7089E6,-9.801596E-2,7.693E1,6.53E2,9.800708E-2,7.99893E-3,-9.191984E-3],"split_indices":[12,0,4,9,0,0,0],"split_type":[0,0,0,0,0,0,0],"sum_hessian":[8.093085E1,3.9465927E1,4.1464916E1,2.1577814E0,3.9307133E1,1.0066203E0,1.1511611E0],"tree_param":{"num_deleted":"0","num_feature":"13","num_nodes":"7","size_leaf_vector":"1"}},{"base_weights":[-2.3993484E-3,-9.772425E-2,9.2193717E-1,-1.09799085E-2,9.771436E-2,7.6067047E-3,-8.688594E-3],"categories":[],"categories_nodes":[],"categories_segments":[],"categories_sizes":[],"default_left":[0,0,0,0,0,0,0],"id":47,"left_children":[1,-1,3,5,-1,-1,-1],"loss_changes":[6.816049E1,0E0,2.0105133E0,2.7476858E-2,0E0,0E0,0E0],"parents":[2147483647,0,0,2,2,3,3],"right_children":[2,-1,4,6,-1,-1,-1],"split_conditions":[1.7089E6,-9.772425E-2,7.693E1,6.53E2,9.771436E-2,7.6067047E-3,-8.688594E-3],"split_indices":[12,0,4,9,0,0,0],"split_type":[0,0,0,0,0,0,0],"sum_hessian":[7.3642975E1,3.5814404E1,3.7828575E1,2.1582377E0,3.5670338E1,1.0043523E0,1.1538852E0],"tree_param":{"num_deleted":"0","num_feature":"13","num_nodes":"7","size_leaf_vector":"1"}},{"base_weights":[-2.3821006E-3,-9.741404E-2,9.139539E-1,-1.0217503E-2,9.740316E-2,7.233458E-3,-8.212616E-3],"categories":[],"categories_nodes":[],"categories_segments":[],"categories_sizes":[],"default_left":[0,0,0,0,0,0,0],"id":48,"left_children":[1,-1,3,5,-1,-1,-1],"loss_changes":[6.1480442E1,0E0,1.9830151E0,2.469149E-2,0E0,0E0,0E0],"parents":[2147483647,0,0,2,2,3,3],"right_children":[2,-1,4,6,-1,-1,-1],"split_conditions":[1.7089E6,-9.741404E-2,7.693E1,6.53E2,9.740316E-2,7.233458E-3,-8.212616E-3],"split_indices":[12,0,4,9,0,0,0],"split_type":[0,0,0,0,0,0,0],"sum_hessian":[6.7043846E1,3.2507324E1,3.4536526E1,2.1587384E0,3.237779E1,1.0022354E0,1.1565028E0],"tree_param":{"num_deleted":"0","num_feature":"13","num_nodes":"7","size_leaf_vector":"1"}},{"base_weights":[-2.383511E-3,-9.059567E-1,9.7125724E-2,-9.8086745E-2,5.545609E-2],"categories":[],"categories_nodes":[],"categories_segments":[],"categories_sizes":[],"default_left":[0,0,0,0,0],"id":49,"left_children":[1,3,-1,-1,-1],"loss_changes":[5.5483177E1,4.1225834E0,0E0,0E0,0E0],"parents":[2147483647,0,0,1,1],"right_children":[2,4,-1,-1,-1],"split_conditions":[1.708915E6,4.7229E2,9.7125724E-2,-9.8086745E-2,5.545609E-2],"split_indices":[12,0,0,0,0],"split_type":[0,0,0,0,0],"sum_hessian":[6.1066395E1,3.1708914E1,2.9357481E1,3.0474281E1,1.234633E0],"tree_param":{"num_deleted":"0","num_feature":"13","num_nodes":"5","size_leaf_vector":"1"}},{"base_weights":[-1.4639128E-3,-9.6725084E-2,9.006214E-1,-1.649209E-3,9.672225E-2],"categories":[],"categories_nodes":[],"categories_segments":[],"categories_sizes":[],"default_left":[0,0,0,0,0],"id":50,"left_children":[1,-1,3,-1,-1],"loss_changes":[5.0104034E1,0E0,1.8322792E0,0E0,0E0],"parents":[2147483647,0,0,2,2],"right_children":[2,-1,4,-1,-1],"split_conditions":[1.7089E6,-9.6725084E-2,7.693E1,-1.649209E-3,9.672225E-2],"split_indices":[12,0,4,0,0],"split_type":[0,0,0,0,0],"sum_hessian":[5.5510162E1,2.677364E1,2.8736523E1,1.9965067E0,2.6740017E1],"tree_param":{"num_deleted":"0","num_feature":"13","num_nodes":"5","size_leaf_vector":"1"}},{"base_weights":[-1.4787047E-3,-8.97372E-1,9.6405804E-2,-9.742957E-2,5.165559E-2],"categories":[],"categories_nodes":[],"categories_segments":[],"categories_sizes":[],"default_left":[0,0,0,0,0],"id":51,"left_children":[1,3,-1,-1,-1],"loss_changes":[4.55066E1,3.4711514E0,0E0,0E0,0E0],"parents":[2147483647,0,0,1,1],"right_children":[2,4,-1,-1,-1],"split_conditions":[1.708915E6,4.7229E2,9.6405804E-2,-9.742957E-2,5.165559E-2],"split_indices":[12,0,0,0,0],"split_type":[0,0,0,0,0],"sum_hessian":[5.0607582E1,2.6287127E1,2.4320457E1,2.5225672E1,1.0614551E0],"tree_param":{"num_deleted":"0","num_feature":"13","num_nodes":"5","size_leaf_vector":"1"}},{"base_weights":[-4.589252E-4,-8.901521E-1,9.5992446E-2,-9.69938E-2,5.036099E-2],"categories":[],"categories_nodes":[],"categories_segments":[],"categories_sizes":[],"default_left":[0,0,0,0,0],"id":52,"left_children":[1,3,-1,-1,-1],"loss_changes":[4.1043846E1,3.2613316E0,0E0,0E0,0E0],"parents":[2147483647,0,0,1,1],"right_children":[2,4,-1,-1,-1],"split_conditions":[1.708915E6,4.7229E2,9.5992446E-2,-9.69938E-2,5.036099E-2],"split_indices":[12,0,0,0,0],"split_type":[0,0,0,0,0],"sum_hessian":[4.6035557E1,2.3935234E1,2.2100323E1,2.2926872E1,1.0083623E0],"tree_param":{"num_deleted":"0","num_feature":"13","num_nodes":"5","size_leaf_vector":"1"}},{"base_weights":[6.2088866E-4,-8.824949E-1,9.554919E-2,-9.6520185E-2,4.5912582E-2],"categories":[],"categories_nodes":[],"categories_segments":[],"categories_sizes":[],"default_left":[0,0,0,0,0],"id":53,"left_children":[1,3,-1,-1,-1],"loss_changes":[3.7013947E1,2.9735165E0,0E0,0E0,0E0],"parents":[2147483647,0,0,1,1],"right_children":[2,4,-1,-1,-1],"split_conditions":[1.708915E6,2.3866E2,9.554919E-2,-9.6520185E-2,4.5912582E-2],"split_indices":[12,4,0,0,0],"split_type":[0,0,0,0,0],"sum_hessian":[4.189384E1,2.1804068E1,2.0089773E1,2.0802242E1,1.0018259E0],"tree_param":{"num_deleted":"0","num_feature":"13","num_nodes":"5","size_leaf_vector":"1"}},{"base_weights":[1.6787074E-3,-9.5013075E-2,8.751698E-1,-3.1050118E-3,9.505545E-2],"categories":[],"categories_nodes":[],"categories_segments":[],"categories_sizes":[],"default_left":[0,0,0,0,0],"id":54,"left_children":[1,-1,3,-1,-1],"loss_changes":[3.338126E1,0E0,1.4597435E0,0E0,0E0],"parents":[2147483647,0,0,2,2],"right_children":[2,-1,4,-1,-1],"split_conditions":[1.7089E6,-9.5013075E-2,7.693E1,-3.1050118E-3,9.505545E-2],"split_indices":[12,0,4,0,0],"split_type":[0,0,0,0,0],"sum_hessian":[3.815065E1,1.821487E1,1.993578E1,1.5761805E0,1.8359598E1],"tree_param":{"num_deleted":"0","num_feature":"13","num_nodes":"5","size_leaf_vector":"1"}},{"base_weights":[1.5860006E-3,-8.710421E-1,9.459678E-2,-9.5578216E-2,3.098019E-2],"categories":[],"categories_nodes":[],"categories_segments":[],"categories_sizes":[],"default_left":[0,0,0,0,0],"id":55,"left_children":[1,3,-1,-1,-1],"loss_changes":[3.0367579E1,2.2126799E0,0E0,0E0,0E0],"parents":[2147483647,0,0,1,1],"right_children":[2,4,-1,-1,-1],"split_conditions":[1.708915E6,1.1971E2,9.459678E-2,-9.5578216E-2,3.098019E-2],"split_indices":[12,6,0,0,0],"split_type":[0,0,0,0,0],"sum_hessian":[3.484979E1,1.8153366E1,1.6696423E1,1.71157E1,1.0376676E0],"tree_param":{"num_deleted":"0","num_feature":"13","num_nodes":"5","size_leaf_vector":"1"}},{"base_weights":[2.414989E-3,-8.609604E-1,9.405001E-2,-9.500376E-2,3.0329347E-2],"categories":[],"categories_nodes":[],"categories_segments":[],"categories_sizes":[],"default_left":[0,0,0,0,0],"id":56,"left_children":[1,3,-1,-1,-1],"loss_changes":[2.7373188E1,2.1135101E0,0E0,0E0,0E0],"parents":[2147483647,0,0,1,1],"right_children":[2,4,-1,-1,-1],"split_conditions":[1.708915E6,1.4372E2,9.405001E-2,-9.500376E-2,3.0329347E-2],"split_indices":[12,4,0,0,0],"split_type":[0,0,0,0,0],"sum_hessian":[3.1797644E1,1.6600986E1,1.5196658E1,1.5592032E1,1.0089532E0],"tree_param":{"num_deleted":"0","num_feature":"13","num_nodes":"5","size_leaf_vector":"1"}},{"base_weights":[3.288139E-3,-9.338273E-2,8.522914E-1,-3.5800647E-3,9.3469195E-2],"categories":[],"categories_nodes":[],"categories_segments":[],"categories_sizes":[],"default_left":[0,0,0,0,0],"id":57,"left_children":[1,-1,3,-1,-1],"loss_changes":[2.4689434E1,0E0,1.2247753E0,0E0,0E0],"parents":[2147483647,0,0,2,2],"right_children":[2,-1,4,-1,-1],"split_conditions":[1.7089E6,-9.338273E-2,7.693E1,-3.5800647E-3,9.3469195E-2],"split_indices":[12,0,4,0,0],"split_type":[0,0,0,0,0],"sum_hessian":[2.9031572E1,1.3752208E1,1.5279365E1,1.345325E0,1.3934039E1],"tree_param":{"num_deleted":"0","num_feature":"13","num_nodes":"5","size_leaf_vector":"1"}},{"base_weights":[3.1239025E-3,-8.4642226E-1,9.287741E-2,-9.382579E-2,2.1368181E-2],"categories":[],"categories_nodes":[],"categories_segments":[],"categories_sizes":[],"default_left":[0,0,0,0,0],"id":58,"left_children":[1,3,-1,-1,-1],"loss_changes":[2.2467173E1,1.6510315E0,0E0,0E0,0E0],"parents":[2147483647,0,0,1,1],"right_children":[2,4,-1,-1,-1],"split_conditions":[1.708915E6,1.03255E2,9.287741E-2,-9.382579E-2,2.1368181E-2],"split_indices":[12,6,0,0,0],"split_type":[0,0,0,0,0],"sum_hessian":[2.6570599E1,1.3899481E1,1.2671118E1,1.2897153E1,1.0023284E0],"tree_param":{"num_deleted":"0","num_feature":"13","num_nodes":"5","size_leaf_vector":"1"}},{"base_weights":[3.8254645E-3,-8.3436954E-1,9.220674E-2,-9.3095325E-2,1.7852142E-2],"categories":[],"categories_nodes":[],"categories_segments":[],"categories_sizes":[],"default_left":[0,0,0,0,0],"id":59,"left_children":[1,3,-1,-1,-1],"loss_changes":[2.0246716E1,1.5118055E0,0E0,0E0,0E0],"parents":[2147483647,0,0,1,1],"right_children":[2,4,-1,-1,-1],"split_conditions":[1.708915E6,1.1643E2,9.220674E-2,-9.3095325E-2,1.7852142E-2],"split_indices":[12,4,0,0,0],"split_type":[0,0,0,0,0],"sum_hessian":[2.430627E1,1.2754746E1,1.1551523E1,1.1718254E1,1.0364928E0],"tree_param":{"num_deleted":"0","num_feature":"13","num_nodes":"5","size_leaf_vector":"1"}},{"base_weights":[4.4137365E-3,-9.139782E-2,8.268771E-1,-3.7989884E-3,9.153932E-2],"categories":[],"categories_nodes":[],"categories_segments":[],"categories_sizes":[],"default_left":[0,0,0,0,0],"id":60,"left_children":[1,-1,3,-1,-1],"loss_changes":[1.8325287E1,0E0,1.0143728E0,0E0,0E0],"parents":[2147483647,0,0,2,2],"right_children":[2,-1,4,-1,-1],"split_conditions":[1.7089E6,-9.139782E-2,7.693E1,-3.7989884E-3,9.153932E-2],"split_indices":[12,0,4,0,0],"split_type":[0,0,0,0,0],"sum_hessian":[2.2260323E1,1.0464273E1,1.179605E1,1.1481916E0,1.0647859E1],"tree_param":{"num_deleted":"0","num_feature":"13","num_nodes":"5","size_leaf_vector":"1"}},{"base_weights":[4.2243744E-3,-8.1671387E-1,9.077876E-2,-9.163766E-2,1.2325867E-2],"categories":[],"categories_nodes":[],"categories_segments":[],"categories_sizes":[],"default_left":[0,0,0,0,0],"id":61,"left_children":[1,3,-1,-1,-1],"loss_changes":[1.6630728E1,1.2136936E0,0E0,0E0,0E0],"parents":[2147483647,0,0,1,1],"right_children":[2,4,-1,-1,-1],"split_conditions":[1.708915E6,8.711E1,9.077876E-2,-9.163766E-2,1.2325867E-2],"split_indices":[12,6,0,0,0],"split_type":[0,0,0,0,0],"sum_hessian":[2.0420835E1,1.0749986E1,9.67085E0,9.742153E0,1.0078323E0],"tree_param":{"num_deleted":"0","num_feature":"13","num_nodes":"5","size_leaf_vector":"1"}},{"base_weights":[4.6662064E-3,-8.9849144E-2,8.0628246E-1,-3.7353237E-3,9.002706E-2],"categories":[],"categories_nodes":[],"categories_segments":[],"categories_sizes":[],"default_left":[0,0,0,0,0],"id":62,"left_children":[1,-1,3,-1,-1],"loss_changes":[1.5017004E1,0E0,9.047046E-1,0E0,0E0],"parents":[2147483647,0,0,2,2],"right_children":[2,-1,4,-1,-1],"split_conditions":[1.7089E6,-8.9849144E-2,7.693E1,-3.7353237E-3,9.002706E-2],"split_indices":[12,0,4,0,0],"split_type":[0,0,0,0,0],"sum_hessian":[1.87415E1,8.7557745E0,9.985725E0,1.0613796E0,8.924346E0],"tree_param":{"num_deleted":"0","num_feature":"13","num_nodes":"5","size_leaf_vector":"1"}},{"base_weights":[4.37098E-3,-7.9725605E-1,8.916761E-2,-8.9941576E-2,6.2408736E-3],"categories":[],"categories_nodes":[],"categories_segments":[],"categories_sizes":[],"default_left":[0,0,0,0,0],"id":63,"left_children":[1,3,-1,-1,-1],"loss_changes":[1.367331E1,9.4333076E-1,0E0,0E0,0E0],"parents":[2147483647,0,0,1,1],"right_children":[2,4,-1,-1,-1],"split_conditions":[1.708915E6,7.872E1,8.916761E-2,-8.9941576E-2,6.2408736E-3],"split_indices":[12,0,0,0,0],"split_type":[0,0,0,0,0],"sum_hessian":[1.7223871E1,9.102129E0,8.121743E0,8.094023E0,1.0081065E0],"tree_param":{"num_deleted":"0","num_feature":"13","num_nodes":"5","size_leaf_vector":"1"}},{"base_weights":[4.5827185E-3,-8.811816E-2,7.8430915E-1,-2.0759539E-3,8.8289104E-2],"categories":[],"categories_nodes":[],"categories_segments":[],"categories_sizes":[],"default_left":[0,0,0,0,0],"id":64,"left_children":[1,-1,3,-1,-1],"loss_changes":[1.2326814E1,0E0,7.7143145E-1,0E0,0E0],"parents":[2147483647,0,0,2,2],"right_children":[2,-1,4,-1,-1],"split_conditions":[1.7089E6,-8.811816E-2,8.273E1,-2.0759539E-3,8.8289104E-2],"split_indices":[12,0,4,0,0],"split_type":[0,0,0,0,0],"sum_hessian":[1.5847361E1,7.358282E0,8.4890785E0,1.0122184E0,7.47686E0],"tree_param":{"num_deleted":"0","num_feature":"13","num_nodes":"5","size_leaf_vector":"1"}},{"base_weights":[4.396598E-3,-7.760413E-1,8.737361E-2,-8.801111E-2,1.1491278E-3],"categories":[],"categories_nodes":[],"categories_segments":[],"categories_sizes":[],"default_left":[0,0,0,0,0],"id":65,"left_children":[1,3,-1,-1,-1],"loss_changes":[1.12606125E1,7.271476E-1,0E0,0E0,0E0],"parents":[2147483647,0,0,1,1],"right_children":[2,4,-1,-1,-1],"split_conditions":[1.708915E6,8.766E1,8.737361E-2,-8.801111E-2,1.1491278E-3],"split_indices":[12,4,0,0,0],"split_type":[0,0,0,0,0],"sum_hessian":[1.4597781E1,7.748758E0,6.8490233E0,6.7404723E0,1.0082858E0],"tree_param":{"num_deleted":"0","num_feature":"13","num_nodes":"5","size_leaf_vector":"1"}},{"base_weights":[4.332838E-3,-7.596998E-1,8.63622E-2,-8.694008E-2,1.091254E-3],"categories":[],"categories_nodes":[],"categories_segments":[],"categories_sizes":[],"default_left":[0,0,0,0,0],"id":66,"left_children":[1,3,-1,-1,-1],"loss_changes":[1.0154569E1,7.0187855E-1,0E0,0E0,0E0],"parents":[2147483647,0,0,1,1],"right_children":[2,4,-1,-1,-1],"split_conditions":[1.708915E6,8.766E1,8.63622E-2,-8.694008E-2,1.091254E-3],"split_indices":[12,4,0,0,0],"split_type":[0,0,0,0,0],"sum_hessian":[1.3467806E1,7.1903973E0,6.2774086E0,6.1821404E0,1.0082568E0],"tree_param":{"num_deleted":"0","num_feature":"13","num_nodes":"5","size_leaf_vector":"1"}},{"base_weights":[4.2662583E-3,-8.522332E-2,7.528602E-1,5.035746E-3,8.5129075E-2],"categories":[],"categories_nodes":[],"categories_segments":[],"categories_sizes":[],"default_left":[0,0,0,0,0],"id":67,"left_children":[1,-1,3,-1,-1],"loss_changes":[9.26089E0,0E0,4.898696E-1,0E0,0E0],"parents":[2147483647,0,0,2,2],"right_children":[2,-1,4,-1,-1],"split_conditions":[1.7089E6,-8.522332E-2,1.1088E2,5.035746E-3,8.5129075E-2],"split_indices":[12,0,4,0,0],"split_type":[0,0,0,0,0],"sum_hessian":[1.2443041E1,5.7386975E0,6.7043433E0,1.0096972E0,5.694646E0],"tree_param":{"num_deleted":"0","num_feature":"13","num_nodes":"5","size_leaf_vector":"1"}},{"base_weights":[4.496468E-3,-7.363266E-1,8.430282E-2,-8.464145E-2,-3.2720936E-3],"categories":[],"categories_nodes":[],"categories_segments":[],"categories_sizes":[],"default_left":[0,0,0,0,0],"id":68,"left_children":[1,3,-1,-1,-1],"loss_changes":[8.391732E0,5.281091E-1,0E0,0E0,0E0],"parents":[2147483647,0,0,1,1],"right_children":[2,4,-1,-1,-1],"split_conditions":[1.708915E6,7.872E1,8.430282E-2,-8.464145E-2,-3.2720936E-3],"split_indices":[12,4,0,0,0],"split_type":[0,0,0,0,0],"sum_hessian":[1.1509566E1,6.1755233E0,5.3340435E0,5.1645045E0,1.0110186E0],"tree_param":{"num_deleted":"0","num_feature":"13","num_nodes":"5","size_leaf_vector":"1"}},{"base_weights":[4.061112E-3,-8.3060905E-2,7.278393E-1,8.077078E-3,8.27249E-2],"categories":[],"categories_nodes":[],"categories_segments":[],"categories_sizes":[],"default_left":[0,0,0,0,0],"id":69,"left_children":[1,-1,3,-1,-1],"loss_changes":[7.652421E0,0E0,3.6938548E-1,0E0,0E0],"parents":[2147483647,0,0,2,2],"right_children":[2,-1,4,-1,-1],"split_conditions":[1.7089E6,-8.3060905E-2,9.886E1,8.077078E-3,8.27249E-2],"split_indices":[12,0,0,0,0],"split_type":[0,0,0,0,0],"sum_hessian":[1.066642E1,4.8851743E0,5.781246E0,1.0112715E0,4.7699747E0],"tree_param":{"num_deleted":"0","num_feature":"13","num_nodes":"5","size_leaf_vector":"1"}},{"base_weights":[4.5700525E-3,-7.117858E-1,8.2086295E-2,-8.159193E-2,-7.8650275E-3],"categories":[],"categories_nodes":[],"categories_segments":[],"categories_sizes":[],"default_left":[0,0,0,0,0],"id":70,"left_children":[1,3,-1,-1,-1],"loss_changes":[6.956367E0,3.5378504E-1,0E0,0E0,0E0],"parents":[2147483647,0,0,1,1],"right_children":[2,4,-1,-1,-1],"split_conditions":[1.708915E6,6.741E1,8.2086295E-2,-8.159193E-2,-7.8650275E-3],"split_indices":[12,6,0,0,0],"split_type":[0,0,0,0,0],"sum_hessian":[9.897E0,5.3393564E0,4.5576434E0,4.3372946E0,1.0020622E0],"tree_param":{"num_deleted":"0","num_feature":"13","num_nodes":"5","size_leaf_vector":"1"}},{"base_weights":[3.8361999E-3,-8.071773E-2,6.99479E-1,9.8148575E-3,8.0110975E-2],"categories":[],"categories_nodes":[],"categories_segments":[],"categories_sizes":[],"default_left":[0,0,0,0,0],"id":71,"left_children":[1,-1,3,-1,-1],"loss_changes":[6.319818E0,0E0,2.8969598E-1,0E0,0E0],"parents":[2147483647,0,0,2,2],"right_children":[2,-1,4,-1,-1],"split_conditions":[1.7089E6,-8.071773E-2,1.2371E2,9.8148575E-3,8.0110975E-2],"split_indices":[12,0,0,0,0],"split_type":[0,0,0,0,0],"sum_hessian":[9.201103E0,4.174241E0,5.0268617E0,1.0109563E0,4.0159054E0],"tree_param":{"num_deleted":"0","num_feature":"13","num_nodes":"5","size_leaf_vector":"1"}},{"base_weights":[4.508361E-3,-6.867879E-1,7.973712E-2,-7.870913E-2,-1.17208585E-2],"categories":[],"categories_nodes":[],"categories_segments":[],"categories_sizes":[],"default_left":[0,0,0,0,0],"id":72,"left_children":[1,3,-1,-1,-1],"loss_changes":[5.790411E0,2.30376E-1,0E0,0E0,0E0],"parents":[2147483647,0,0,1,1],"right_children":[2,4,-1,-1,-1],"split_conditions":[1.708915E6,7.588E1,7.973712E-2,-7.870913E-2,-1.17208585E-2],"split_indices":[12,4,0,0,0],"split_type":[0,0,0,0,0],"sum_hessian":[8.565328E0,4.6472144E0,3.9181137E0,3.626672E0,1.0205424E0],"tree_param":{"num_deleted":"0","num_feature":"13","num_nodes":"5","size_leaf_vector":"1"}},{"base_weights":[3.297477E-3,-6.68528E-1,7.8412145E-2,-1.0934516E-2,-7.7652E-2],"categories":[],"categories_nodes":[],"categories_segments":[],"categories_sizes":[],"default_left":[0,0,0,0,0],"id":73,"left_children":[1,3,-1,-1,-1],"loss_changes":[5.2409244E0,2.3954296E-1,0E0,0E0,0E0],"parents":[2147483647,0,0,1,1],"right_children":[2,4,-1,-1,-1],"split_conditions":[1.708915E6,3E0,7.8412145E-2,-1.0934516E-2,-7.7652E-2],"split_indices":[12,1,0,0,0],"split_type":[0,0,0,0,0],"sum_hessian":[7.9914594E0,4.372851E0,3.6186087E0,1.0335668E0,3.3392837E0],"tree_param":{"num_deleted":"0","num_feature":"13","num_nodes":"5","size_leaf_vector":"1"}},{"base_weights":[2.0441413E-3,-7.704986E-2,6.58131E-1,1.2784249E-2,7.571488E-2],"categories":[],"categories_nodes":[],"categories_segments":[],"categories_sizes":[],"default_left":[0,0,0,0,0],"id":74,"left_children":[1,-1,3,-1,-1],"loss_changes":[4.800501E0,0E0,1.720407E-1,0E0,0E0],"parents":[2147483647,0,0,2,2],"right_children":[2,-1,4,-1,-1],"split_conditions":[1.7089E6,-7.704986E-2,1.9877E2,1.2784249E-2,7.571488E-2],"split_indices":[12,0,6,0,0],"split_type":[0,0,0,0,0],"sum_hessian":[7.4706883E0,3.3507698E0,4.1199183E0,1.008738E0,3.1111805E0],"tree_param":{"num_deleted":"0","num_feature":"13","num_nodes":"5","size_leaf_vector":"1"}},{"base_weights":[3.2870641E-3,-6.4273757E-1,7.590948E-2,-7.4292496E-2,-1.3123517E-2],"categories":[],"categories_nodes":[],"categories_segments":[],"categories_sizes":[],"default_left":[0,0,0,0,0],"id":75,"left_children":[1,3,-1,-1,-1],"loss_changes":[4.389934E0,1.5105581E-1,0E0,0E0,0E0],"parents":[2147483647,0,0,1,1],"right_children":[2,4,-1,-1,-1],"split_conditions":[1.708915E6,6.649E1,7.590948E-2,-7.4292496E-2,-1.3123517E-2],"split_indices":[12,4,0,0,0],"split_type":[0,0,0,0,0],"sum_hessian":[6.9915447E0,3.850199E0,3.1413457E0,2.8412504E0,1.0089487E0],"tree_param":{"num_deleted":"0","num_feature":"13","num_nodes":"5","size_leaf_vector":"1"}},{"base_weights":[1.7311022E-3,-7.444826E-2,6.28899E-1,1.3831827E-2,7.2599344E-2],"categories":[],"categories_nodes":[],"categories_segments":[],"categories_sizes":[],"default_left":[0,0,0,0,0],"id":76,"left_children":[1,-1,3,-1,-1],"loss_changes":[4.0051727E0,0E0,1.209991E-1,0E0,0E0],"parents":[2147483647,0,0,2,2],"right_children":[2,-1,4,-1,-1],"split_conditions":[1.7089E6,-7.444826E-2,1.875E2,1.3831827E-2,7.2599344E-2],"split_indices":[12,0,0,0,0],"split_type":[0,0,0,0,0],"sum_hessian":[6.5576043E0,2.9091725E0,3.6484318E0,1.0033697E0,2.645062E0],"tree_param":{"num_deleted":"0","num_feature":"13","num_nodes":"5","size_leaf_vector":"1"}},{"base_weights":[3.2117467E-3,-6.171608E-1,7.334929E-2,-7.070959E-2,-1.5585624E-2],"categories":[],"categories_nodes":[],"categories_segments":[],"categories_sizes":[],"default_left":[0,0,0,0,0],"id":77,"left_children":[1,3,-1,-1,-1],"loss_changes":[3.6961384E0,7.291877E-2,0E0,0E0,0E0],"parents":[2147483647,0,0,1,1],"right_children":[2,4,-1,-1,-1],"split_conditions":[1.708915E6,1.708381E6,7.334929E-2,-7.070959E-2,-1.5585624E-2],"split_indices":[12,12,0,0,0],"split_type":[0,0,0,0,0],"sum_hessian":[6.1592126E0,3.4139595E0,2.7452528E0,2.4110816E0,1.002878E0],"tree_param":{"num_deleted":"0","num_feature":"13","num_nodes":"5","size_leaf_vector":"1"}},{"base_weights":[1.409222E-3,-5.991018E-1,7.189128E-2,-6.921231E-2,-1.4906201E-2],"categories":[],"categories_nodes":[],"categories_segments":[],"categories_sizes":[],"default_left":[0,0,0,0,0],"id":78,"left_children":[1,3,-1,-1,-1],"loss_changes":[3.3597927E0,7.459152E-2,0E0,0E0,0E0],"parents":[2147483647,0,0,1,1],"right_children":[2,4,-1,-1,-1],"split_conditions":[1.708915E6,5.685E1,7.189128E-2,-6.921231E-2,-1.4906201E-2],"split_indices":[12,0,0,0,0],"split_type":[0,0,0,0,0],"sum_hessian":[5.7981043E0,3.246218E0,2.5518866E0,2.2443953E0,1.0018227E0],"tree_param":{"num_deleted":"0","num_feature":"13","num_nodes":"5","size_leaf_vector":"1"}},{"base_weights":[-4.234442E-4,-7.04528E-2,5.8239686E-1,1.5310058E-2,6.7458905E-2],"categories":[],"categories_nodes":[],"categories_segments":[],"categories_sizes":[],"default_left":[0,0,0,0,0],"id":79,"left_children":[1,-1,3,-1,-1],"loss_changes":[3.0646012E0,0E0,5.844593E-2,0E0,0E0],"parents":[2147483647,0,0,2,2],"right_children":[2,-1,4,-1,-1],"split_conditions":[1.7089E6,-7.04528E-2,3.0304E2,1.5310058E-2,6.7458905E-2],"split_indices":[12,0,6,0,0],"split_type":[0,0,0,0,0],"sum_hessian":[5.4680886E0,2.3818061E0,3.0862827E0,1.015984E0,2.0702987E0],"tree_param":{"num_deleted":"0","num_feature":"13","num_nodes":"5","size_leaf_vector":"1"}},{"base_weights":[1.4310107E-3,-5.743591E-1,6.9308825E-2,-6.578594E-2,-1.6662521E-2],"categories":[],"categories_nodes":[],"categories_segments":[],"categories_sizes":[],"default_left":[0,0,0,0,0],"id":80,"left_children":[1,3,-1,-1,-1],"loss_changes":[2.85341E0,2.354753E-2,0E0,0E0,0E0],"parents":[2147483647,0,0,1,1],"right_children":[2,4,-1,-1,-1],"split_conditions":[1.708915E6,5.845E1,6.9308825E-2,-6.578594E-2,-1.6662521E-2],"split_indices":[12,4,0,0,0],"split_type":[0,0,0,0,0],"sum_hessian":[5.165303E0,2.9112983E0,2.254005E0,1.9072567E0,1.0040416E0],"tree_param":{"num_deleted":"0","num_feature":"13","num_nodes":"5","size_leaf_vector":"1"}},{"base_weights":[-6.601412E-4,-5.568237E-1,6.781306E-2,-6.418043E-2,-1.6186208E-2],"categories":[],"categories_nodes":[],"categories_segments":[],"categories_sizes":[],"default_left":[0,0,0,0,0],"id":81,"left_children":[1,3,-1,-1,-1],"loss_changes":[2.6010635E0,2.3202062E-2,0E0,0E0,0E0],"parents":[2147483647,0,0,1,1],"right_children":[2,4,-1,-1,-1],"split_conditions":[1.708915E6,5.766E1,6.781306E-2,-6.418043E-2,-1.6186208E-2],"split_indices":[12,4,0,0,0],"split_type":[0,0,0,0,0],"sum_hessian":[4.8896804E0,2.786368E0,2.1033125E0,1.7786847E0,1.007683E0],"tree_param":{"num_deleted":"0","num_feature":"13","num_nodes":"5","size_leaf_vector":"1"}},{"base_weights":[-2.6991868E-3,-6.657383E-2,5.4153558E-2],"categories":[],"categories_nodes":[],"categories_segments":[],"categories_sizes":[],"default_left":[0,0,0],"id":82,"left_children":[1,-1,-1],"loss_changes":[2.39488E0,0E0,0E0],"parents":[2147483647,0,0],"right_children":[2,-1,-1],"split_conditions":[1.7089E6,-6.657383E-2,5.4153558E-2],"split_indices":[12,0,0],"split_type":[0,0,0],"sum_hessian":[4.637703E0,1.9900172E0,2.647686E0],"tree_param":{"num_deleted":"0","num_feature":"13","num_nodes":"3","size_leaf_vector":"1"}},{"base_weights":[-5.0956183E-3,-5.339448E-1,6.5087035E-2,-1.6247472E-2,-6.1645396E-2],"categories":[],"categories_nodes":[],"categories_segments":[],"categories_sizes":[],"default_left":[0,0,0,0,0],"id":83,"left_children":[1,3,-1,-1,-1],"loss_changes":[2.2213945E0,8.339524E-3,0E0,0E0,0E0],"parents":[2147483647,0,0,1,1],"right_children":[2,4,-1,-1,-1],"split_conditions":[1.708915E6,2E0,6.5087035E-2,-1.6247472E-2,-6.1645396E-2],"split_indices":[12,2,0,0,0],"split_type":[0,0,0,0,0],"sum_hessian":[4.401637E0,2.539928E0,1.8617089E0,1.00126E0,1.5386679E0],"tree_param":{"num_deleted":"0","num_feature":"13","num_nodes":"5","size_leaf_vector":"1"}},{"base_weights":[-7.0444434E-3,-5.3635117E-2,6.179377E-2],"categories":[],"categories_nodes":[],"categories_segments":[],"categories_sizes":[],"default_left":[0,0,0],"id":84,"left_children":[1,-1,-1],"loss_changes":[2.0483928E0,0E0,0E0],"parents":[2147483647,0,0],"right_children":[2,-1,-1],"split_conditions":[1.6099E2,-5.3635117E-2,6.179377E-2],"split_indices":[4,0,0],"split_type":[0,0,0],"sum_hessian":[4.190216E0,2.345549E0,1.8446671E0],"tree_param":{"num_deleted":"0","num_feature":"13","num_nodes":"3","size_leaf_vector":"1"}},{"base_weights":[-4.8061293E-3,-5.1098444E-2,6.2623635E-2],"categories":[],"categories_nodes":[],"categories_segments":[],"categories_sizes":[],"default_left":[0,0,0],"id":85,"left_children":[1,-1,-1],"loss_changes":[1.9160218E0,0E0,0E0],"parents":[2147483647,0,0],"right_children":[2,-1,-1],"split_conditions":[1.708915E6,-5.1098444E-2,6.2623635E-2],"split_indices":[12,0,0],"split_type":[0,0,0],"sum_hessian":[3.9966338E0,2.3232987E0,1.673335E0],"tree_param":{"num_deleted":"0","num_feature":"13","num_nodes":"3","size_leaf_vector":"1"}},{"base_weights":[-1.8549481E-3,-6.1572015E-2,4.9556375E-2],"categories":[],"categories_nodes":[],"categories_segments":[],"categories_sizes":[],"default_left":[0,0,0],"id":86,"left_children":[1,-1,-1],"loss_changes":[1.7754899E0,0E0,0E0],"parents":[2147483647,0,0],"right_children":[2,-1,-1],"split_conditions":[1.7089E6,-6.1572015E-2,4.9556375E-2],"split_indices":[12,0,0],"split_type":[0,0,0],"sum_hessian":[3.815363E0,1.6013292E0,2.2140336E0],"tree_param":{"num_deleted":"0","num_feature":"13","num_nodes":"3","size_leaf_vector":"1"}},{"base_weights":[-4.4368356E-3,-5.0213624E-2,5.8119476E-2],"categories":[],"categories_nodes":[],"categories_segments":[],"categories_sizes":[],"default_left":[0,0,0],"id":87,"left_children":[1,-1,-1],"loss_changes":[1.6443319E0,0E0,0E0],"parents":[2147483647,0,0],"right_children":[2,-1,-1],"split_conditions":[1.3562E2,-5.0213624E-2,5.8119476E-2],"split_indices":[6,0,0],"split_type":[0,0,0],"sum_hessian":[3.6402712E0,2.0449457E0,1.5953254E0],"tree_param":{"num_deleted":"0","num_feature":"13","num_nodes":"3","size_leaf_vector":"1"}},{"base_weights":[-2.1915797E-3,-4.770023E-2,5.9066486E-2],"categories":[],"categories_nodes":[],"categories_segments":[],"categories_sizes":[],"default_left":[0,0,0],"id":88,"left_children":[1,-1,-1],"loss_changes":[1.5442697E0,0E0,0E0],"parents":[2147483647,0,0],"right_children":[2,-1,-1],"split_conditions":[1.708915E6,-4.770023E-2,5.9066486E-2],"split_indices":[12,0,0],"split_type":[0,0,0],"sum_hessian":[3.4850645E0,2.0437055E0,1.4413592E0],"tree_param":{"num_deleted":"0","num_feature":"13","num_nodes":"3","size_leaf_vector":"1"}},{"base_weights":[7.458588E-4,-5.7815205E-2,4.6260465E-2],"categories":[],"categories_nodes":[],"categories_segments":[],"categories_sizes":[],"default_left":[0,0,0],"id":89,"left_children":[1,-1,-1],"loss_changes":[1.4274919E0,0E0,0E0],"parents":[2147483647,0,0],"right_children":[2,-1,-1],"split_conditions":[1.7089E6,-5.7815205E-2,4.6260465E-2],"split_indices":[12,0,0],"split_type":[0,0,0],"sum_hessian":[3.3387065E0,1.3698856E0,1.9688208E0],"tree_param":{"num_deleted":"0","num_feature":"13","num_nodes":"3","size_leaf_vector":"1"}},{"base_weights":[-2.2000177E-3,-4.7019284E-2,5.4941095E-2],"categories":[],"categories_nodes":[],"categories_segments":[],"categories_sizes":[],"default_left":[0,0,0],"id":90,"left_children":[1,-1,-1],"loss_changes":[1.3418593E0,0E0,0E0],"parents":[2147483647,0,0],"right_children":[2,-1,-1],"split_conditions":[1.6099E2,-4.7019284E-2,5.4941095E-2],"split_indices":[4,0,0],"split_type":[0,0,0],"sum_hessian":[3.19729E0,1.8096033E0,1.3876865E0],"tree_param":{"num_deleted":"0","num_feature":"13","num_nodes":"3","size_leaf_vector":"1"}},{"base_weights":[-2.7608607E-5,-4.454158E-2,5.565546E-2],"categories":[],"categories_nodes":[],"categories_segments":[],"categories_sizes":[],"default_left":[0,0,0],"id":91,"left_children":[1,-1,-1],"loss_changes":[1.2568855E0,0E0,0E0],"parents":[2147483647,0,0],"right_children":[2,-1,-1],"split_conditions":[1.708915E6,-4.454158E-2,5.565546E-2],"split_indices":[12,0,0],"split_type":[0,0,0],"sum_hessian":[3.070218E0,1.8164161E0,1.253802E0],"tree_param":{"num_deleted":"0","num_feature":"13","num_nodes":"3","size_leaf_vector":"1"}},{"base_weights":[2.9654412E-3,-4.7868684E-2,4.936954E-2],"categories":[],"categories_nodes":[],"categories_segments":[],"categories_sizes":[],"default_left":[0,0,0],"id":92,"left_children":[1,-1,-1],"loss_changes":[1.1702341E0,0E0,0E0],"parents":[2147483647,0,0],"right_children":[2,-1,-1],"split_conditions":[7.996E1,-4.7868684E-2,4.936954E-2],"split_indices":[6,0,0],"split_type":[0,0,0],"sum_hessian":[2.9511929E0,1.5017569E0,1.4494358E0],"tree_param":{"num_deleted":"0","num_feature":"13","num_nodes":"3","size_leaf_vector":"1"}},{"base_weights":[3.2240083E-3,4.2417146E-2,-5.3654194E-2],"categories":[],"categories_nodes":[],"categories_segments":[],"categories_sizes":[],"default_left":[0,0,0],"id":93,"left_children":[1,-1,-1],"loss_changes":[1.1002458E0,0E0,0E0],"parents":[2147483647,0,0],"right_children":[2,-1,-1],"split_conditions":[1E0,4.2417146E-2,-5.3654194E-2],"split_indices":[2,0,0],"split_type":[0,0,0],"sum_hessian":[2.8407123E0,1.7163435E0,1.1243687E0],"tree_param":{"num_deleted":"0","num_feature":"13","num_nodes":"3","size_leaf_vector":"1"}},{"base_weights":[-1.3969273E-4,-4.1638147E-2,5.2345462E-2],"categories":[],"categories_nodes":[],"categories_segments":[],"categories_sizes":[],"default_left":[0,0,0],"id":94,"left_children":[1,-1,-1],"loss_changes":[1.0320684E0,0E0,0E0],"parents":[2147483647,0,0],"right_children":[2,-1,-1],"split_conditions":[1.708915E6,-4.1638147E-2,5.2345462E-2],"split_indices":[12,0,0],"split_type":[0,0,0],"sum_hessian":[2.7354546E0,1.6380317E0,1.0974228E0],"tree_param":{"num_deleted":"0","num_feature":"13","num_nodes":"3","size_leaf_vector":"1"}},{"base_weights":[2.8811677E-3,-5.124982E-2,4.104832E-2],"categories":[],"categories_nodes":[],"categories_segments":[],"categories_sizes":[],"default_left":[0,0,0],"id":95,"left_children":[1,-1,-1],"loss_changes":[9.744166E-1,0E0,0E0],"parents":[2147483647,0,0],"right_children":[2,-1,-1],"split_conditions":[1.7089E6,-5.124982E-2,4.104832E-2],"split_indices":[12,0,0],"split_type":[0,0,0],"sum_hessian":[2.6371014E0,1.0509331E0,1.5861683E0],"tree_param":{"num_deleted":"0","num_feature":"13","num_nodes":"3","size_leaf_vector":"1"}},{"base_weights":[-3.307467E-4,-4.15727E-2,4.874465E-2],"categories":[],"categories_nodes":[],"categories_segments":[],"categories_sizes":[],"default_left":[0,0,0],"id":96,"left_children":[1,-1,-1],"loss_changes":[9.199747E-1,0E0,0E0],"parents":[2147483647,0,0],"right_children":[2,-1,-1],"split_conditions":[1.6099E2,-4.15727E-2,4.874465E-2],"split_indices":[4,0,0],"split_type":[0,0,0],"sum_hessian":[2.5402575E0,1.4516922E0,1.0885652E0],"tree_param":{"num_deleted":"0","num_feature":"13","num_nodes":"3","size_leaf_vector":"1"}},{"base_weights":[1.87166E-3,-4.2785063E-2,4.4432517E-2],"categories":[],"categories_nodes":[],"categories_segments":[],"categories_sizes":[],"default_left":[0,0,0],"id":97,"left_children":[1,-1,-1],"loss_changes":[8.466343E-1,0E0,0E0],"parents":[2147483647,0,0],"right_children":[2,-1,-1],"split_conditions":[7.996E1,-4.2785063E-2,4.4432517E-2],"split_indices":[6,0,0],"split_type":[0,0,0],"sum_hessian":[2.4530168E0,1.2611549E0,1.1918619E0],"tree_param":{"num_deleted":"0","num_feature":"13","num_nodes":"3","size_leaf_vector":"1"}},{"base_weights":[2.3819513E-3,-3.864147E-2,4.6136785E-2],"categories":[],"categories_nodes":[],"categories_segments":[],"categories_sizes":[],"default_left":[0,0,0],"id":98,"left_children":[1,-1,-1],"loss_changes":[7.8024495E-1,0E0,0E0],"parents":[2147483647,0,0],"right_children":[2,-1,-1],"split_conditions":[1.3562E2,-3.864147E-2,4.6136785E-2],"split_indices":[6,0,0],"split_type":[0,0,0],"sum_hessian":[2.3732598E0,1.370474E0,1.0027858E0],"tree_param":{"num_deleted":"0","num_feature":"13","num_nodes":"3","size_leaf_vector":"1"}},{"base_weights":[4.431245E-3,-3.961306E-2,4.18487E-2],"categories":[],"categories_nodes":[],"categories_segments":[],"categories_sizes":[],"default_left":[0,0,0],"id":99,"left_children":[1,-1,-1],"loss_changes":[7.1287566E-1,0E0,0E0],"parents":[2147483647,0,0],"right_children":[2,-1,-1],"split_conditions":[7.996E1,-3.961306E-2,4.18487E-2],"split_indices":[6,0,0],"split_type":[0,0,0],"sum_hessian":[2.2986674E0,1.1903765E0,1.1082908E0],"tree_param":{"num_deleted":"0","num_feature":"13","num_nodes":"3","size_leaf_vector":"1"}}]},"name":"gbtree"},"learner_model_param":{"base_score":"[5E-1]","boost_from_average":"1","num_class":"0","num_feature":"13","num_target":"1"},"objective":{"name":"binary:logistic","reg_loss_param":{"scale_pos_weight":"33.3333321"}}},"version":[3,2,0]}